digraph Tree {
node [shape=box, style="filled", color="black"] ;
0 [label="Sex_male <= 0.5\ngini = 0.473\nsamples = 668\nvalue = [412, 256]", fillcolor="#f5cfb4"] ;
1 [label="Pclass_3 <= 0.5\ngini = 0.372\nsamples = 247\nvalue = [61, 186]", fillcolor="#7abdee"] ;
0 -> 1 [labeldistance=2.5, labelangle=45, headlabel="True"] ;
3 [label="gini = 0.098\nsamples = 136\nvalue = [7, 129]", fillcolor="#44a2e6"] ;
1 -> 3 ;
4 [label="Fare <= 23.35\ngini = 0.5\nsamples = 111\nvalue = [54, 57]", fillcolor="#f5fafe"] ;
1 -> 4 ;
5 [label="Age <= 36.5\ngini = 0.48\nsamples = 90\nvalue = [36, 54]", fillcolor="#bddef6"] ;
4 -> 5 ;
11 [label="(...)", fillcolor="#C0C0C0"] ;
5 -> 11 ;
12 [label="(...)", fillcolor="#C0C0C0"] ;
5 -> 12 ;
6 [label="Parch_0 <= 0.5\ngini = 0.245\nsamples = 21\nvalue = [18, 3]", fillcolor="#e9965a"] ;
4 -> 6 ;
25 [label="(...)", fillcolor="#C0C0C0"] ;
6 -> 25 ;
26 [label="(...)", fillcolor="#C0C0C0"] ;
6 -> 26 ;
2 [label="Fare <= 15.173\ngini = 0.277\nsamples = 421\nvalue = [351, 70]", fillcolor="#ea9a60"] ;
0 -> 2 [labeldistance=2.5, labelangle=-45, headlabel="False"] ;
7 [label="Age <= 10.5\ngini = 0.174\nsamples = 250\nvalue = [226, 24]", fillcolor="#e88e4e"] ;
2 -> 7 ;
9 [label="gini = 0.0\nsamples = 3\nvalue = [0, 3]", fillcolor="#399de5"] ;
7 -> 9 ;
10 [label="gini = 0.156\nsamples = 247\nvalue = [226, 21]", fillcolor="#e78d4b"] ;
7 -> 10 ;
8 [label="Pclass_1 <= 0.5\ngini = 0.393\nsamples = 171\nvalue = [125, 46]", fillcolor="#efaf82"] ;
2 -> 8 ;
13 [label="Fare <= 15.373\ngini = 0.306\nsamples = 85\nvalue = [69, 16]", fillcolor="#eb9e67"] ;
8 -> 13 ;
15 [label="(...)", fillcolor="#C0C0C0"] ;
13 -> 15 ;
16 [label="(...)", fillcolor="#C0C0C0"] ;
13 -> 16 ;
14 [label="Age <= 14.5\ngini = 0.454\nsamples = 86\nvalue = [56, 30]", fillcolor="#f3c4a3"] ;
8 -> 14 ;
21 [label="(...)", fillcolor="#C0C0C0"] ;
14 -> 21 ;
22 [label="(...)", fillcolor="#C0C0C0"] ;
14 -> 22 ;
}